digraph Tree {
node [shape=box] ;
0 [label="X[0] <= 5.35\ngini = 0.657\nsamples = 65\nvalue = [27, 41, 32]"] ;
1 [label="X[2] <= 2.45\ngini = 0.395\nsamples = 22\nvalue = [26, 8, 1]"] ;
0 -> 1 [labeldistance=2.5, labelangle=45, headlabel="True"] ;
2 [label="gini = 0.0\nsamples = 16\nvalue = [26, 0, 0]"] ;
1 -> 2 ;
3 [label="X[2] <= 4.2\ngini = 0.198\nsamples = 6\nvalue = [0, 8, 1]"] ;
1 -> 3 ;
4 [label="gini = 0.0\nsamples = 5\nvalue = [0, 8, 0]"] ;
3 -> 4 ;
5 [label="gini = 0.0\nsamples = 1\nvalue = [0, 0, 1]"] ;
3 -> 5 ;
6 [label="X[3] <= 1.75\ngini = 0.515\nsamples = 43\nvalue = [1, 33, 31]"] ;
0 -> 6 [labeldistance=2.5, labelangle=-45, headlabel="False"] ;
7 [label="X[2] <= 5.3\ngini = 0.197\nsamples = 24\nvalue = [1, 33, 3]"] ;
6 -> 7 ;
8 [label="X[2] <= 2.35\ngini = 0.109\nsamples = 22\nvalue = [1, 33, 1]"] ;
7 -> 8 ;
9 [label="gini = 0.0\nsamples = 1\nvalue = [1, 0, 0]"] ;
8 -> 9 ;
10 [label="X[1] <= 2.25\ngini = 0.057\nsamples = 21\nvalue = [0, 33, 1]"] ;
8 -> 10 ;
11 [label="gini = 0.0\nsamples = 1\nvalue = [0, 0, 1]"] ;
10 -> 11 ;
12 [label="gini = 0.0\nsamples = 20\nvalue = [0, 33, 0]"] ;
10 -> 12 ;
13 [label="gini = 0.0\nsamples = 2\nvalue = [0, 0, 2]"] ;
7 -> 13 ;
14 [label="gini = 0.0\nsamples = 19\nvalue = [0, 0, 28]"] ;
6 -> 14 ;
}