digraph Tree {
node [shape=box] ;
0 [label="X[3] <= 0.65\ngini = 0.658\nsamples = 60\nvalue = [30, 29, 41]"] ;
1 [label="gini = 0.0\nsamples = 18\nvalue = [30, 0, 0]"] ;
0 -> 1 [labeldistance=2.5, labelangle=45, headlabel="True"] ;
2 [label="X[3] <= 1.75\ngini = 0.485\nsamples = 42\nvalue = [0, 29, 41]"] ;
0 -> 2 [labeldistance=2.5, labelangle=-45, headlabel="False"] ;
3 [label="X[0] <= 4.95\ngini = 0.231\nsamples = 24\nvalue = [0, 26, 4]"] ;
2 -> 3 ;
4 [label="gini = 0.0\nsamples = 1\nvalue = [0, 0, 1]"] ;
3 -> 4 ;
5 [label="X[2] <= 5.35\ngini = 0.185\nsamples = 23\nvalue = [0, 26, 3]"] ;
3 -> 5 ;
6 [label="gini = 0.0\nsamples = 21\nvalue = [0, 26, 0]"] ;
5 -> 6 ;
7 [label="gini = 0.0\nsamples = 2\nvalue = [0, 0, 3]"] ;
5 -> 7 ;
8 [label="X[2] <= 4.85\ngini = 0.139\nsamples = 18\nvalue = [0, 3, 37]"] ;
2 -> 8 ;
9 [label="gini = 0.0\nsamples = 1\nvalue = [0, 3, 0]"] ;
8 -> 9 ;
10 [label="gini = 0.0\nsamples = 17\nvalue = [0, 0, 37]"] ;
8 -> 10 ;
}