digraph Tree {
node [shape=box] ;
0 [label="X[3] <= 1.6\ngini = 0.662\nsamples = 61\nvalue = [34, 28, 38]"] ;
1 [label="X[2] <= 2.6\ngini = 0.495\nsamples = 36\nvalue = [34, 28, 0]"] ;
0 -> 1 [labeldistance=2.5, labelangle=45, headlabel="True"] ;
2 [label="gini = 0.0\nsamples = 20\nvalue = [34, 0, 0]"] ;
1 -> 2 ;
3 [label="gini = 0.0\nsamples = 16\nvalue = [0, 28, 0]"] ;
1 -> 3 ;
4 [label="gini = 0.0\nsamples = 25\nvalue = [0, 0, 38]"] ;
0 -> 4 [labeldistance=2.5, labelangle=-45, headlabel="False"] ;
}